tree
version=v3
num_class=1
num_tree_per_iteration=1
label_index=0
max_feature_idx=72
objective=regression
feature_names=BEGIN_TIME DEATHS_DIRECT DEATHS_INDIRECT MAGNITUDE TOR_LENGTH TOR_WIDTH DURATION STORM_AREA PopDensity Population HPI STATE_ALABAMA STATE_ARIZONA STATE_ARKANSAS STATE_CALIFORNIA STATE_COLORADO STATE_DELAWARE STATE_FLORIDA STATE_GEORGIA STATE_HAWAII STATE_IDAHO STATE_ILLINOIS STATE_INDIANA STATE_IOWA STATE_KANSAS STATE_KENTUCKY STATE_MAINE STATE_MARYLAND STATE_MASSACHUSETTS STATE_MICHIGAN STATE_MINNESOTA STATE_MISSISSIPPI STATE_MISSOURI STATE_MONTANA STATE_NEBRASKA STATE_NEVADA STATE_NEW_HAMPSHIRE STATE_NEW_JERSEY STATE_NEW_MEXICO STATE_NEW_YORK STATE_NORTH_CAROLINA STATE_NORTH_DAKOTA STATE_OHIO STATE_OKLAHOMA STATE_OREGON STATE_PENNSYLVANIA STATE_RHODE_ISLAND STATE_SOUTH_CAROLINA STATE_SOUTH_DAKOTA STATE_TENNESSEE STATE_TEXAS STATE_UTAH STATE_VERMONT STATE_VIRGINIA STATE_WASHINGTON STATE_WEST_VIRGINIA STATE_WISCONSIN STATE_WYOMING EVENT_TYPE_Debris_Flow EVENT_TYPE_Dense_Fog EVENT_TYPE_Drought EVENT_TYPE_Dust_Devil EVENT_TYPE_Dust_Storm EVENT_TYPE_Flash_Flood EVENT_TYPE_Flood EVENT_TYPE_Funnel_Cloud EVENT_TYPE_Hail EVENT_TYPE_Heavy_Rain EVENT_TYPE_High_Wind EVENT_TYPE_Lightning EVENT_TYPE_Thunderstorm_Wind EVENT_TYPE_Tornado EVENT_TYPE_Waterspout
feature_infos=[-2.7193204009409078:1.574224728087108] [-0.021216181343721524:165.70816693262282] [-0.01816732660359489:254.77143788330019] [-0.89058140331680691:9.5216935615276679] [-0.10296697889820884:173.93237032047924] [-0.10380693807923838:53.530194538039737] [-0.11360497599419496:18.560155869059393] [-0.21709011768122574:74.222215529588254] [-0.23990129744951413:53.266023350917415] [-0.38742188421423812:18.041382114347265] [-1.323403076886386:8.6142795419278144] [0:1] [0:1] [0:1] [0:1] [0:1] [0:1] [0:1] [0:1] [0:1] [0:1] [0:1] [0:1] [0:1] [0:1] [0:1] [0:1] [0:1] [0:1] [0:1] [0:1] [0:1] [0:1] [0:1] [0:1] [0:1] [0:1] [0:1] [0:1] [0:1] [0:1] [0:1] [0:1] [0:1] [0:1] [0:1] [0:1] [0:1] [0:1] [0:1] [0:1] [0:1] [0:1] [0:1] [0:1] [0:1] [0:1] [0:1] [0:1] none none [0:1] none [0:1] [0:1] [0:1] [0:1] [0:1] none [0:1] [0:1] [0:1] none
tree_sizes=2817 2822 2822 2803

Tree=0
num_leaves=31
num_cat=0
split_feature=2 1 10 6 4 8 4 6 63 0 9 7 10 9 6 17 7 49 1 8 9 9 7 4 50 50 10 7 3 3
split_gain=1.63999e+19 2.40873e+18 5.94903e+18 1.69504e+17 3.64666e+16 2.11325e+17 3.01509e+16 1.59235e+16 1.30898e+17 2.09874e+17 2.62766e+16 2.67445e+16 3.03539e+16 1.27328e+16 1.21964e+16 9.97499e+15 2.08878e+16 9.77946e+15 7.31627e+15 9.66087e+15 7.31167e+15 6.03916e+15 4.73665e+16 7.45133e+15 1.0201e+16 5.89866e+15 1.78209e+16 3.14487e+16 8.61576e+15 3.31445e+16
threshold=47.754883650253376 9.3952260410407451 -0.71499646170302256 -0.0008654758319614343 11.213680828993811 0.1223464780959851 5.548830599899075 0.87762413582180643 1.0000000180025095e-35 -0.48700454644626529 -0.045670516727962913 3.3466957965465856 1.8416645587716023 -0.29207971263117488 14.475597503255878 1.0000000180025095e-35 -0.055585657722881383 1.0000000180025095e-35 1.0000000180025095e-35 -0.19858495316684291 -0.027568865724078705 2.7183331592290174 8.5659024253473302 2.0420185533166189 1.0000000180025095e-35 1.0000000180025095e-35 2.6023939839260115 -0.18027660107311805 -0.83983092641981305 -0.69862849254404435
decision_type=2 2 2 2 2 2 2 2 2 2 2 2 2 2 2 2 2 2 2 2 2 2 2 2 2 2 2 2 2 2
left_child=1 4 -3 6 7 18 -4 21 10 -10 17 14 -13 -8 15 20 -17 -9 -6 -20 -12 -1 23 25 -25 -23 28 -28 -27 -30
right_child=-2 2 3 -5 5 -7 13 8 9 -11 11 12 -14 -15 -16 16 -18 -19 19 -21 -22 22 -24 24 -26 26 27 -29 29 -31
leaf_value=196083.63640273752 33949147.096727796 29990341.774027906 406402.05418669991 6288930.7510982957 319528.62557024125 4596019.5595468367 1466948.4005646342 218485.22828193338 216241.60913731021 6785843.6016582791 1223706.4302463613 704700.14117494819 2555471.2347106468 3042275.9653322501 1350003.2795555806 192534.58547842709 2292925.9528942406 1138491.4733959918 380528.73874167993 1675609.3173929388 273703.67945299286 200883.6706331599 2290034.9348462322 220652.75004965361 1678461.6576406835 195819.56351992636 192469.51317586869 2698478.324889218 771878.87884332554 194384.75710235507
leaf_weight=462748 36 23 46 21 601 31 29 7288 31 20 21 72 32 23 33 29 20 29 36 24 570 6468 28 28 21 1620 31 21 361 797
leaf_count=462748 36 23 46 21 601 31 29 7288 31 20 21 72 32 23 33 29 20 29 36 24 570 6468 28 28 21 1620 31 21 361 797
internal_value=202396 200529 6.71165e+06 2.2124e+06 198607 561311 1.33886e+06 198084 267400 2.79256e+06 251489 527947 1.27417e+06 2.16373e+06 412632 364298 1.04984e+06 222132 372088 898561 307460 196889 236618 230467 845428 227226 287433 1.20451e+06 270267 374415
internal_weight=0 481102 142 119 480960 692 98 480268 8145 51 8094 777 104 52 673 640 49 7317 661 60 591 472123 9375 9347 49 9298 2830 52 2778 1158
internal_count=481138 481102 142 119 480960 692 98 480268 8145 51 8094 777 104 52 673 640 49 7317 661 60 591 472123 9375 9347 49 9298 2830 52 2778 1158
shrinkage=1


Tree=1
num_leaves=31
num_cat=0
split_feature=2 1 10 6 5 8 4 9 7 9 6 9 10 9 14 6 1 10 17 7 49 9 4 7 9 9 0 34 63 8
split_gain=1.48009e+19 2.17388e+18 5.369e+18 1.52978e+17 3.33883e+16 1.32325e+17 2.72111e+16 2.11414e+16 1.52261e+16 3.49228e+16 2.3599e+17 2.22956e+16 3.22473e+16 1.14914e+16 1.05938e+16 6.80879e+15 1.34483e+16 1.11769e+16 8.63781e+15 2.80496e+16 7.29086e+15 8.00962e+15 4.98737e+15 1.05033e+16 4.38499e+15 5.15486e+15 2.22237e+16 4.65448e+15 4.41511e+15 1.13796e+16
threshold=47.754883650253376 9.3952260410407451 -0.71499646170302256 -0.0008654758319614343 9.5623023003209706 0.27345707060617502 5.548830599899075 0.18825681276191555 5.3247691711981213 1.0000000180025095e-35 1.6703564282427064 4.5004978002230933 0.88218148124090867 -0.29207971263117488 1.0000000180025095e-35 0.55843957692093749 1.0000000180025095e-35 -0.12966181506809121 1.0000000180025095e-35 0.035854367400631144 1.0000000180025095e-35 -0.31394414391846531 8.7510808062076197 0.020416441081035439 -0.3006119940661815 -0.29651333341998659 0.27196464338191723 1.0000000180025095e-35 1.0000000180025095e-35 -0.15657776909542112
decision_type=2 2 2 2 2 2 2 2 2 2 2 2 2 2 2 2 2 2 2 2 2 2 2 2 2 2 2 2 2 2
left_child=1 4 -3 6 8 7 -4 22 15 -10 11 14 -13 -8 -11 -1 18 -18 20 -20 24 -22 -6 -24 -17 26 -26 28 -27 -30
right_child=-2 2 3 -5 5 -7 13 -9 9 10 -12 12 -14 -15 -16 16 17 -19 19 -21 21 -23 23 -25 25 27 -28 -29 29 -31
leaf_value=-5798.4952013577758 32059416.044444442 28298547.765217394 193805.98674422555 5782208.3255952382 66231.21772312418 4032955.0184018346 1201324.973983028 1460481.1524230959 25956.923009037415 69999.724864659176 4426659.2659374997 2698025.7924107146 -72882.935453869053 2697886.2523862096 1123348.3863437499 -869.76888316835505 142855.55760498048 1375896.6316607308 -4425.1557443779202 1561913.7274063502 -7825.9569531250008 1407237.3263281251 1416096.3276562502 236265.89371584239 39699.208105468751 44926.348809910043 1831721.1584517048 681164.49473958334 1452093.9192773439 -14845.016786858976
leaf_weight=467429 36 23 46 21 600 23 29 32 2900 528 35 21 21 23 25 5988 40 34 107 39 20 20 20 332 81 2554 22 30 20 39
leaf_count=467429 36 23 46 21 600 23 29 32 2900 528 35 21 21 23 25 5988 40 34 107 39 20 20 20 332 81 2554 22 30 20 39
internal_value=0 -1773.1 6.18379e+06 1.90951e+06 -3599.35 284006 1.07964e+06 196378 -4202.78 99257.7 436674 201969 1.31257e+06 1.86327e+06 117619 -4969.36 38122 709388 32553.2 413980 26206.2 699706 153888 303302 23121.7 75438.2 422461 61914.4 54804.8 482422
internal_weight=0 481102 142 119 480960 1007 98 984 479953 3530 630 595 42 52 553 476423 8994 74 8920 146 8774 40 952 352 8734 2746 103 2643 2613 59
internal_count=481138 481102 142 119 480960 1007 98 984 479953 3530 630 595 42 52 553 476423 8994 74 8920 146 8774 40 952 352 8734 2746 103 2643 2613 59
shrinkage=0.05


Tree=2
num_leaves=31
num_cat=0
split_feature=2 1 6 5 4 4 8 7 9 6 9 10 10 1 8 6 1 10 8 8 17 7 49 5 9 34 50 7 9 50
split_gain=1.33578e+19 1.96192e+18 5.0461e+18 4.08131e+17 4.20366e+16 3.14355e+16 1.87936e+17 1.3693e+16 3.21253e+16 3.32854e+17 2.1153e+16 2.91032e+16 1.06176e+16 6.49352e+15 8.66227e+15 6.11683e+15 1.21371e+16 1.00872e+16 8.15094e+15 2.61748e+16 1.49118e+16 3.56425e+16 6.38584e+15 5.43273e+15 9.47751e+15 5.30446e+15 3.96965e+15 1.23131e+16 3.53645e+15 5.79874e+15
threshold=47.754883650253376 9.3952260410407451 0.011684375763092393 21.709462833332086 7.8896058865757013 11.213680828993811 0.1223464780959851 5.3247691711981213 0.2126049182934987 1.6703564282427064 4.5004978002230933 0.88218148124090867 -0.46156343930574001 1.0000000180025095e-35 -0.19858495316684291 0.55843957692093749 1.0000000180025095e-35 -0.12966181506809121 -0.013314057180145408 0.0027762416850821339 1.0000000180025095e-35 0.035854367400631144 1.0000000180025095e-35 4.3004753936293838 1.9258551908248682 1.0000000180025095e-35 1.0000000180025095e-35 2.3954820287037322 2.7183331592290174 1.0000000180025095e-35
decision_type=2 2 2 2 2 2 2 2 2 2 2 2 2 2 2 2 2 2 2 2 2 2 2 2 2 2 2 2 2 2
left_child=1 5 3 4 12 7 13 15 -9 10 -10 -12 -3 -7 -15 23 18 -18 22 -20 25 -22 26 28 -25 -21 -17 -28 -1 -30
right_child=-2 2 -4 -5 -6 6 -8 8 9 -11 11 -13 -14 14 -16 16 17 -19 19 20 21 -23 -24 24 -26 -27 27 -29 29 -31
leaf_value=-6419.570644643105 30456445.377777781 -1035504.7825781251 29153828.617500003 8223973.6982954554 2039573.5324324325 105375.66190618178 4138227.0893145162 32909.46271941701 71561.978775928641 6211254.0593750002 2563124.5922619049 -69238.78723958334 358950.31707632379 160350.64044053821 1386673.0913899741 8682.6316674958434 135712.77920898437 1307101.8555147061 1841482.7299932067 43946.490947199643 -20970.770725319602 2343217.2992500002 679783.73980034725 60069.194684857735 1079977.4457965354 784464.04607324221 12741.124916770241 1402794.3202194942 -1429.3336138291741 84444.946395452251
leaf_weight=456126 36 20 20 22 37 601 31 2997 432 24 21 21 43 36 24 7940 40 34 23 740 44 25 36 2358 23 25 66 21 6443 2829
leaf_count=456126 36 20 20 22 37 601 31 2997 432 24 21 21 43 36 24 7940 40 34 23 740 44 25 36 2358 23 25 66 21 6443 2829
internal_value=0 -1684.45 5.8746e+06 2.05833e+06 701890 -3419.38 333336 -3904.6 94702.8 466579 175710 1.24694e+06 -83733.8 154892 650880 -4627.44 36215.9 673919 30925.5 177531 131642 835619 15343.2 -5412.74 69921.3 68146.4 12363.2 348271 -5798.15 24772
internal_weight=0 481102 142 122 100 480960 692 480268 3495 498 474 42 63 661 60 476773 8994 74 8920 857 834 69 8063 467779 2381 765 8027 87 465398 9272
internal_count=481138 481102 142 122 100 480960 692 480268 3495 498 474 42 63 661 60 476773 8994 74 8920 857 834 69 8063 467779 2381 765 8027 87 465398 9272
shrinkage=0.05


Tree=3
num_leaves=31
num_cat=0
split_feature=2 1 7 9 7 5 9 9 7 9 50 9 7 7 9 1 64 52 5 9 4 7 9 5 64 9 9 9 1 7
split_gain=1.20555e+19 1.77064e+18 3.32787e+18 4.24278e+17 6.84602e+17 3.00558e+16 1.9844e+17 1.90572e+16 1.37902e+16 1.82829e+16 2.08843e+16 3.95084e+16 1.1243e+17 1.70784e+16 2.27568e+16 1.80473e+16 1.5379e+16 8.1378e+15 6.08944e+15 8.37703e+15 4.93669e+15 1.28211e+16 5.26132e+15 3.7182e+15 3.62659e+15 4.99063e+15 3.62184e+15 8.27093e+15 3.62079e+15 4.26815e+15
threshold=47.754883650253376 9.3952260410407451 3.820521381277215 -0.23418590094862868 0.5191802144818557 16.963827806727334 0.0090347320585201663 -0.297640603130716 2.8170561705067425 1.0000000180025095e-35 1.0000000180025095e-35 0.37579860404057991 5.3247691711981213 8.5659024253473302 4.5004978002230933 1.0000000180025095e-35 1.0000000180025095e-35 1.0000000180025095e-35 4.3004753936293838 1.9258551908248682 9.0599935299140153 -0.053210592135348636 -0.10500079209903865 14.299611651440452 1.0000000180025095e-35 2.0165990222083274 0.259152415254989 0.13494293687553274 5.6286491520869575 0.43249032053353514
decision_type=2 2 2 2 2 2 2 2 2 2 2 2 2 2 2 2 2 2 2 2 2 2 2 2 2 2 2 2 2 2
left_child=1 5 3 7 -5 8 -7 -3 18 17 13 12 -12 15 16 24 -15 23 28 20 -20 -22 -23 -10 -11 26 27 -26 -1 -30
right_child=-2 2 -4 4 -6 6 -8 -9 9 10 11 -13 -14 14 -16 -17 -18 -19 19 -21 21 22 -24 -25 25 -27 -28 -29 29 -31
leaf_value=-5215.6712012120861 28933622.266666669 -285426.41254185268 24485743.540312499 -383603.34992559528 11862234.449406251 123752.16419665064 4855288.486470541 1512606.5578515625 16960.670906531239 28720.066501280628 261510.4656871449 123792.91265169904 4708151.0524646584 -958.25922732469519 2006396.7822115384 1184418.6021431589 1263825.779756434 806403.88963290129 39653.078835987719 1025978.5972826089 1485048.0665429689 75639.719154230756 720922.25502533792 519448.78561021958 61718.414463682442 896281.0441490761 39604.392329657836 1323745.6841796876 78888.856835937506 733825.44657366071
leaf_weight=469072 36 56 20 21 25 289 24 20 7351 1153 44 103 21 82 26 37 34 33 1996 23 20 216 37 37 37 26 158 20 86 35
leaf_count=469072 36 56 20 21 25 289 24 20 7351 1153 44 103 21 82 26 37 34 33 1996 23 20 216 37 37 37 26 158 20 86 35
internal_value=0 -1600.23 5.58087e+06 2.48171e+06 6.27174e+06 -3248.41 486554 187740 -3567.37 57187.5 203012 732907 1.69812e+06 146418 669421 94519.2 369754 22976.5 -4747.97 76552.5 66928.5 266349 170009 19477.2 65590.8 241989 162865 504535 -5145.13 268333
internal_weight=0 481102 142 122 46 480960 313 76 480647 9162 1741 168 65 1573 142 1431 116 7421 471485 2292 2269 273 253 7388 1394 241 215 57 469193 121
internal_count=481138 481102 142 122 46 480960 313 76 480647 9162 1741 168 65 1573 142 1431 116 7421 471485 2292 2269 273 253 7388 1394 241 215 57 469193 121
shrinkage=0.05


end of trees

feature_importances:
Population=26
STORM_AREA=17
DEATHS_DIRECT=10
DURATION=9
HPI=9
TOR_LENGTH=8
PopDensity=8
TOR_WIDTH=6
STATE_TEXAS=5
DEATHS_INDIRECT=4
STATE_FLORIDA=3
STATE_TENNESSEE=3
BEGIN_TIME=2
MAGNITUDE=2
STATE_NEBRASKA=2
EVENT_TYPE_Flash_Flood=2
EVENT_TYPE_Flood=2
STATE_CALIFORNIA=1
STATE_VERMONT=1

parameters:
[boosting: gbdt]
[objective: regression]
[metric: l1,l2]
[tree_learner: serial]
[device_type: cpu]
[data: ]
[valid: ]
[num_iterations: 20]
[learning_rate: 0.05]
[num_leaves: 31]
[num_threads: 0]
[deterministic: 0]
[force_col_wise: 0]
[force_row_wise: 0]
[histogram_pool_size: -1]
[max_depth: -1]
[min_data_in_leaf: 20]
[min_sum_hessian_in_leaf: 0.001]
[bagging_fraction: 0.8]
[pos_bagging_fraction: 1]
[neg_bagging_fraction: 1]
[bagging_freq: 5]
[bagging_seed: 3]
[feature_fraction: 0.9]
[feature_fraction_bynode: 1]
[feature_fraction_seed: 2]
[extra_trees: 0]
[extra_seed: 6]
[early_stopping_round: 0]
[first_metric_only: 0]
[max_delta_step: 0]
[lambda_l1: 0]
[lambda_l2: 0]
[min_gain_to_split: 0]
[drop_rate: 0.1]
[max_drop: 50]
[skip_drop: 0.5]
[xgboost_dart_mode: 0]
[uniform_drop: 0]
[drop_seed: 4]
[top_rate: 0.2]
[other_rate: 0.1]
[min_data_per_group: 100]
[max_cat_threshold: 32]
[cat_l2: 10]
[cat_smooth: 10]
[max_cat_to_onehot: 4]
[top_k: 20]
[monotone_constraints: ]
[monotone_constraints_method: basic]
[monotone_penalty: 0]
[feature_contri: ]
[forcedsplits_filename: ]
[refit_decay_rate: 0.9]
[cegb_tradeoff: 1]
[cegb_penalty_split: 0]
[cegb_penalty_feature_lazy: ]
[cegb_penalty_feature_coupled: ]
[path_smooth: 0]
[interaction_constraints: ]
[verbosity: 0]
[saved_feature_importance_type: 0]
[max_bin: 255]
[max_bin_by_feature: ]
[min_data_in_bin: 3]
[bin_construct_sample_cnt: 200000]
[data_random_seed: 1]
[is_enable_sparse: 1]
[enable_bundle: 1]
[use_missing: 1]
[zero_as_missing: 0]
[feature_pre_filter: 1]
[pre_partition: 0]
[two_round: 0]
[header: 0]
[label_column: ]
[weight_column: ]
[group_column: ]
[ignore_column: ]
[categorical_feature: ]
[forcedbins_filename: ]
[objective_seed: 5]
[num_class: 1]
[is_unbalance: 0]
[scale_pos_weight: 1]
[sigmoid: 1]
[boost_from_average: 1]
[reg_sqrt: 0]
[alpha: 0.9]
[fair_c: 1]
[poisson_max_delta_step: 0.7]
[tweedie_variance_power: 1.5]
[lambdarank_truncation_level: 30]
[lambdarank_norm: 1]
[label_gain: ]
[eval_at: ]
[multi_error_top_k: 1]
[auc_mu_weights: ]
[num_machines: 1]
[local_listen_port: 12400]
[time_out: 120]
[machine_list_filename: ]
[machines: ]
[gpu_platform_id: -1]
[gpu_device_id: -1]
[gpu_use_dp: 0]
[num_gpu: 1]

end of parameters

pandas_categorical:[]
